{
  "W1": [
    [
      0.31199385330811297,
      -0.09776762495416379,
      0.41840947857218047,
      1.144416657536785,
      -0.5217459541727398,
      -0.1788107515673552,
      1.0295428752958358,
      0.5764287710924979,
      -0.4018637337988529,
      0.42950779067722983,
      -0.32768579310951645,
      -0.27181988893146314,
      0.17109316301564367,
      -1.3528934353077857,
      -1.219701096359567,
      -0.44780586768366826
    ],
    [
      -0.7017253661610561,
      0.22220641984790257,
      -0.7090388723925795,
      -0.7653758398328023,
      0.9869187855089773,
      -0.17448407441699454,
      -0.2102440490758873,
      -0.9212281205818428,
      -0.4540350005166654,
      -0.15939153108936546,
      -0.8138753636974738,
      0.35119542934908093,
      -0.42471569068459103,
      -0.2062586285085581,
      -0.425470825792191,
      1.1772387023170552
    ],
    [
      -0.0636002572141685,
      -0.7479145703998398,
      0.4933980275006988,
      -0.7111655689054899,
      0.1735663266713045,
      -1.3945834234694745,
      -0.9122032204265563,
      0.10515555347221113,
      0.4512561606095737,
      0.3300474841025023,
      -0.08177568470930166,
      -0.001989899814693137,
      -1.0454729255222392,
      -0.5090067211537608,
      -0.32572079862310266,
      0.5704945900806047
    ],
    [
      0.21067845136346056,
      -1.2466576493611736,
      0.19344165606057415,
      -0.19992651934228,
      -0.6489175444859082,
      0.41536699023605633,
      0.6302255987457405,
      0.6870899192334261,
      -0.6643664498029679,
      -0.17197494384889664,
      0.23423861870458482,
      0.7526703996555287,
      -0.33882735295030014,
      -0.13128072138714006,
      -0.7822969623835054,
      -0.9016950934643982
    ]
  ],
  "b1": [
    [
      -0.038478620614743594,
      0.0,
      -0.017925515102351585,
      0.10479580034750799,
      -0.018328251181078746,
      -0.019069039099921727,
      -0.13792987606263896,
      0.004396159557312887,
      -0.06973811521062656,
      -0.032909565188427026,
      0.0,
      0.008352990135572782,
      0.0,
      0.0,
      0.0,
      -0.11002093637330994
    ]
  ],
  "W2": [
    [
      0.23598276830980264,
      0.5062801339782741,
      0.014360238119518575,
      0.35480245862161874,
      0.1647785862245001,
      -0.2074149137134885,
      0.07874208791586876,
      0.49810950109818475
    ],
    [
      -0.012666417598850599,
      0.5531850695832972,
      -0.9262197640410581,
      0.29058641715896344,
      0.030775786116809506,
      -0.10571506256951874,
      0.03244233366759856,
      -0.7027117287949387
    ],
    [
      -0.13026903464717576,
      0.18050012480963443,
      0.6741292169487008,
      -0.18323619291416413,
      -0.2041212426620135,
      -0.17141661074954745,
      0.2744623264596043,
      0.057002515689175505
    ],
    [
      -0.23615011274897288,
      0.2018698303314667,
      0.08701451546362336,
      0.3424677206840926,
      -0.19703550854365048,
      -0.0662832576998415,
      -0.18855401107472386,
      -0.5557646842577038
    ],
    [
      0.06932751392600199,
      0.19698661904933892,
      -0.14629478525836803,
      -0.08293907639433973,
      -0.22383861744207156,
      0.2005288043421171,
      -0.08916275951666176,
      -0.38428750756698704
    ],
    [
      -0.11014642857887855,
      -0.015622240642802826,
      0.6351282521195873,
      0.0617225776490546,
      -0.007655754973327177,
      -0.09784264735951802,
      -0.7264644383698219,
      -0.011712113365124623
    ],
    [
      -0.029547097241736025,
      0.8323216585689581,
      -0.03670136212723802,
      0.10661308530643933,
      -0.015915153134457277,
      -0.42363099603200266,
      0.35515000719171785,
      0.2220251627965469
    ],
    [
      0.2276552532590622,
      -0.28522220190935477,
      0.5219915515609876,
      -0.49562919635699526,
      0.2399171067220317,
      0.7716778276697785,
      -0.39960275078216695,
      -0.24577011506071067
    ],
    [
      0.035232078003983744,
      -0.12145303474648916,
      -0.576136879738417,
      0.02424067221183217,
      -0.37558107982769084,
      0.16744020961037828,
      -0.32506555540698545,
      0.48901590955726915
    ],
    [
      -0.33010853884867963,
      -0.08175704595252972,
      0.39117439336255655,
      -0.4351762524354971,
      0.15973268007884572,
      0.43853589033342555,
      -0.6188724209594759,
      -0.00801550948639415
    ],
    [
      0.09188244306338429,
      0.27641612716023845,
      -0.4373281178277062,
      -0.46685191268725656,
      0.18453421021541586,
      0.10499993817582841,
      0.08856259655915816,
      0.1224879391326246
    ],
    [
      -0.2917794963394912,
      0.1840022820175985,
      0.08963451111792486,
      -0.25256136591833545,
      0.7117087945347117,
      0.08781422559693658,
      -0.4697740676760428,
      0.14913152329361337
    ],
    [
      -0.3446020092579847,
      0.27827643033690724,
      0.4096253952844449,
      -0.29015501625319573,
      0.3406048969109539,
      0.1459400962906334,
      0.29064215683770106,
      0.6706175902708318
    ],
    [
      -0.08675780042411045,
      -0.2664859765213595,
      -0.3144908425757458,
      -0.2884324923303956,
      -0.027259570783893877,
      0.1206154374040156,
      0.09782497024909137,
      0.29245344233864656
    ],
    [
      0.004596862957561175,
      0.5139019013218346,
      -0.09357032073495801,
      0.9617250318350395,
      0.22120681218581892,
      -0.30305096034362206,
      -0.3786176736504071,
      0.17057975827695407
    ],
    [
      -0.10902561898787795,
      0.2610093357684383,
      0.049586051664331485,
      -0.025748909003058762,
      -0.02340255550216215,
      -0.21829959833252702,
      -0.1278770716522382,
      0.20087402958688164
    ]
  ],
  "b2": [
    [
      -0.052507686489259596,
      0.06865632932129583,
      -0.03605136074749168,
      0.0,
      0.02547909170920961,
      -0.07737073661595364,
      -0.048758049958165316,
      -0.0781837624081376
    ]
  ],
  "W3": [
    [
      0.05518231769098512,
      -0.5719473966085175,
      0.13952666710238712,
      0.12702974072707707
    ],
    [
      -0.5080756003638561,
      0.010336811702373484,
      -0.0425417174607992,
      -0.5053492448481066
    ],
    [
      0.09627605104149413,
      0.3345283445147171,
      0.5948870476747437,
      0.5128316794356981
    ],
    [
      -0.6888346839785455,
      -0.4689125199575614,
      0.2575176336043299,
      0.2568929754561044
    ],
    [
      0.12971859575645261,
      1.8960855918891313,
      0.2218497975881829,
      0.5653307664090574
    ],
    [
      0.34100896491724403,
      0.38566645937495225,
      -0.09824109796821737,
      0.30356741555329586
    ],
    [
      -0.43013050685813625,
      -0.07450996944761681,
      -0.19758154151389795,
      -0.0030689968498599984
    ],
    [
      1.100312780233228,
      -0.8747009833914943,
      0.40386285765761254,
      -0.8366041356132737
    ]
  ],
  "b3": [
    [
      -0.0788467892344249,
      -0.02457384325164689,
      -0.01608097052274643,
      -0.05478572548653356
    ]
  ],
  "W4": [
    [
      -0.27181277308894836
    ],
    [
      0.7465154593066146
    ],
    [
      0.08640010625720455
    ],
    [
      -0.5022369597258141
    ]
  ],
  "b4": [
    [
      0.00043817534097282757
    ]
  ]
}